digraph Tree {
0 [label="('phone', 'z', 'std') <= 3.5801\ngini = 0.877370024646\nsamples = 908", shape="box"] ;
1 [label="('phone', 'y', 'mean_average_deviation') <= 0.7520\ngini = 0.859255386376\nsamples = 697", shape="box"] ;
0 -> 1 ;
2 [label="('phone', 'y', 'mean') <= -5.9548\ngini = 0.813595669832\nsamples = 369", shape="box"] ;
1 -> 2 ;
3 [label="('phone', 'x', 'mean') <= -1.0260\ngini = 0.71875\nsamples = 200", shape="box"] ;
2 -> 3 ;
4 [label="('phone', 'y', 'mean') <= -8.4180\ngini = 0.225694444444\nsamples = 96", shape="box"] ;
3 -> 4 ;
5 [label="gini = 0.0000\nsamples = 83\nvalue = [  0.   0.   0.   0.  83.   0.   0.   0.   0.   0.   0.   0.]", shape="box"] ;
4 -> 5 ;
6 [label="('phone', 'x', 'mean') <= -1.9492\ngini = 0.520710059172\nsamples = 13", shape="box"] ;
4 -> 6 ;
7 [label="('phone', 'corr_x_y') <= -0.9017\ngini = 0.197530864198\nsamples = 9", shape="box"] ;
6 -> 7 ;
8 [label="gini = 0.0000\nsamples = 1\nvalue = [ 0.  0.  0.  0.  1.  0.  0.  0.  0.  0.  0.  0.]", shape="box"] ;
7 -> 8 ;
9 [label="gini = 0.0000\nsamples = 8\nvalue = [ 8.  0.  0.  0.  0.  0.  0.  0.  0.  0.  0.  0.]", shape="box"] ;
7 -> 9 ;
10 [label="gini = 0.0000\nsamples = 4\nvalue = [ 0.  0.  0.  0.  0.  0.  0.  0.  0.  4.  0.  0.]", shape="box"] ;
6 -> 10 ;
11 [label="('phone', 'x', 'std') <= 0.2118\ngini = 0.697300295858\nsamples = 104", shape="box"] ;
3 -> 11 ;
12 [label="('phone', 'z', 'mean') <= 0.2303\ngini = 0.374830239928\nsamples = 47", shape="box"] ;
11 -> 12 ;
13 [label="('phone', 'x', 'amax') <= 1.6028\ngini = 0.283396430503\nsamples = 43", shape="box"] ;
12 -> 13 ;
14 [label="('phone', 'x', 'amax') <= -0.6612\ngini = 0.0997229916898\nsamples = 38", shape="box"] ;
13 -> 14 ;
15 [label="gini = 0.0000\nsamples = 2\nvalue = [ 0.  0.  0.  0.  0.  2.  0.  0.  0.  0.  0.  0.]", shape="box"] ;
14 -> 15 ;
16 [label="gini = 0.0000\nsamples = 36\nvalue = [  0.   0.   0.   0.   0.   0.   0.   0.   0.  36.   0.   0.]", shape="box"] ;
14 -> 16 ;
17 [label="('phone', 'y', 'mean') <= -8.8210\ngini = 0.48\nsamples = 5", shape="box"] ;
13 -> 17 ;
18 [label="gini = 0.0000\nsamples = 3\nvalue = [ 0.  0.  0.  0.  0.  3.  0.  0.  0.  0.  0.  0.]", shape="box"] ;
17 -> 18 ;
19 [label="gini = 0.0000\nsamples = 2\nvalue = [ 0.  0.  2.  0.  0.  0.  0.  0.  0.  0.  0.  0.]", shape="box"] ;
17 -> 19 ;
20 [label="gini = 0.0000\nsamples = 4\nvalue = [ 0.  0.  0.  0.  0.  4.  0.  0.  0.  0.  0.  0.]", shape="box"] ;
12 -> 20 ;
21 [label="('phone', 'magnitude', 'std') <= 0.0702\ngini = 0.670360110803\nsamples = 57", shape="box"] ;
11 -> 21 ;
22 [label="gini = 0.0000\nsamples = 20\nvalue = [  0.   0.   0.   0.   0.   0.   0.   0.   0.   0.  20.   0.]", shape="box"] ;
21 -> 22 ;
23 [label="('phone', 'y', 'mean') <= -8.9556\ngini = 0.626734842951\nsamples = 37", shape="box"] ;
21 -> 23 ;
24 [label="('phone', 'corr_y_z') <= 0.0437\ngini = 0.37585733882\nsamples = 27", shape="box"] ;
23 -> 24 ;
25 [label="('phone', 'corr_y_z') <= -0.7903\ngini = 0.158790170132\nsamples = 23", shape="box"] ;
24 -> 25 ;
26 [label="gini = 0.0000\nsamples = 1\nvalue = [ 0.  0.  0.  0.  0.  0.  0.  0.  0.  1.  0.  0.]", shape="box"] ;
25 -> 26 ;
27 [label="('phone', 'z', 'std') <= 0.5762\ngini = 0.0867768595041\nsamples = 22", shape="box"] ;
25 -> 27 ;
28 [label="('phone', 'y', 'mean_average_deviation') <= 0.0715\ngini = 0.444444444444\nsamples = 3", shape="box"] ;
27 -> 28 ;
29 [label="gini = 0.0000\nsamples = 2\nvalue = [ 0.  0.  0.  0.  0.  2.  0.  0.  0.  0.  0.  0.]", shape="box"] ;
28 -> 29 ;
30 [label="gini = 0.0000\nsamples = 1\nvalue = [ 0.  0.  0.  0.  0.  0.  0.  0.  0.  1.  0.  0.]", shape="box"] ;
28 -> 30 ;
31 [label="gini = 0.0000\nsamples = 19\nvalue = [  0.   0.   0.   0.   0.  19.   0.   0.   0.   0.   0.   0.]", shape="box"] ;
27 -> 31 ;
32 [label="('phone', 'corr_y_z') <= 0.6037\ngini = 0.375\nsamples = 4", shape="box"] ;
24 -> 32 ;
33 [label="gini = 0.0000\nsamples = 3\nvalue = [ 0.  0.  0.  0.  3.  0.  0.  0.  0.  0.  0.  0.]", shape="box"] ;
32 -> 33 ;
34 [label="gini = 0.0000\nsamples = 1\nvalue = [ 0.  0.  0.  0.  0.  0.  0.  0.  0.  0.  1.  0.]", shape="box"] ;
32 -> 34 ;
35 [label="('phone', 'corr_x_y') <= 0.1378\ngini = 0.66\nsamples = 10", shape="box"] ;
23 -> 35 ;
36 [label="gini = 0.0000\nsamples = 4\nvalue = [ 0.  0.  0.  0.  0.  0.  0.  0.  0.  4.  0.  0.]", shape="box"] ;
35 -> 36 ;
37 [label="('phone', 'magnitude', 'mean_average_deviation') <= 0.1504\ngini = 0.5\nsamples = 6", shape="box"] ;
35 -> 37 ;
38 [label="gini = 0.0000\nsamples = 3\nvalue = [ 0.  0.  0.  0.  0.  0.  0.  0.  0.  0.  3.  0.]", shape="box"] ;
37 -> 38 ;
39 [label="gini = 0.0000\nsamples = 3\nvalue = [ 0.  0.  3.  0.  0.  0.  0.  0.  0.  0.  0.  0.]", shape="box"] ;
37 -> 39 ;
40 [label="('phone', 'x', 'mean_average_deviation') <= 0.0278\ngini = 0.505584538357\nsamples = 169", shape="box"] ;
2 -> 40 ;
41 [label="('phone', 'y', 'mean') <= -3.0684\ngini = 0.054012345679\nsamples = 72", shape="box"] ;
40 -> 41 ;
42 [label="gini = 0.0000\nsamples = 2\nvalue = [ 0.  0.  0.  2.  0.  0.  0.  0.  0.  0.  0.  0.]", shape="box"] ;
41 -> 42 ;
43 [label="gini = 0.0000\nsamples = 70\nvalue = [  0.  70.   0.   0.   0.   0.   0.   0.   0.   0.   0.   0.]", shape="box"] ;
41 -> 43 ;
44 [label="('phone', 'y', 'amax') <= 1.1068\ngini = 0.234668933999\nsamples = 97", shape="box"] ;
40 -> 44 ;
45 [label="('phone', 'corr_y_z') <= 0.0463\ngini = 0.107057189749\nsamples = 89", shape="box"] ;
44 -> 45 ;
46 [label="('phone', 'y', 'amax') <= -2.1353\ngini = 0.442906574394\nsamples = 17", shape="box"] ;
45 -> 46 ;
47 [label="('phone', 'x', 'amax') <= 6.5375\ngini = 0.14201183432\nsamples = 13", shape="box"] ;
46 -> 47 ;
48 [label="gini = 0.0000\nsamples = 1\nvalue = [ 0.  0.  1.  0.  0.  0.  0.  0.  0.  0.  0.  0.]", shape="box"] ;
47 -> 48 ;
49 [label="gini = 0.0000\nsamples = 12\nvalue = [  0.   0.   0.  12.   0.   0.   0.   0.   0.   0.   0.   0.]", shape="box"] ;
47 -> 49 ;
50 [label="gini = 0.0000\nsamples = 4\nvalue = [ 0.  4.  0.  0.  0.  0.  0.  0.  0.  0.  0.  0.]", shape="box"] ;
46 -> 50 ;
51 [label="gini = 0.0000\nsamples = 72\nvalue = [  0.   0.   0.  72.   0.   0.   0.   0.   0.   0.   0.   0.]", shape="box"] ;
45 -> 51 ;
52 [label="gini = 0.0000\nsamples = 8\nvalue = [ 0.  8.  0.  0.  0.  0.  0.  0.  0.  0.  0.  0.]", shape="box"] ;
44 -> 52 ;
53 [label="('phone', 'y', 'mean') <= -9.3297\ngini = 0.616987656157\nsamples = 328", shape="box"] ;
1 -> 53 ;
54 [label="('phone', 'x', 'mean') <= 0.2632\ngini = 0.247890625\nsamples = 160", shape="box"] ;
53 -> 54 ;
55 [label="('phone', 'y', 'mean') <= -9.4040\ngini = 0.0831758034026\nsamples = 23", shape="box"] ;
54 -> 55 ;
56 [label="gini = 0.0000\nsamples = 22\nvalue = [  0.   0.  22.   0.   0.   0.   0.   0.   0.   0.   0.   0.]", shape="box"] ;
55 -> 56 ;
57 [label="gini = 0.0000\nsamples = 1\nvalue = [ 0.  0.  0.  0.  0.  0.  0.  0.  0.  0.  0.  1.]", shape="box"] ;
55 -> 57 ;
58 [label="gini = 0.0000\nsamples = 137\nvalue = [   0.    0.    0.    0.    0.    0.  137.    0.    0.    0.    0.    0.]", shape="box"] ;
54 -> 58 ;
59 [label="('phone', 'z', 'std') <= 2.6287\ngini = 0.489087301587\nsamples = 168", shape="box"] ;
53 -> 59 ;
60 [label="('phone', 'entropy') <= 4.9562\ngini = 0.235650603112\nsamples = 131", shape="box"] ;
59 -> 60 ;
61 [label="('phone', 'corr_x_z') <= -0.0295\ngini = 0.165245554895\nsamples = 123", shape="box"] ;
60 -> 61 ;
62 [label="('phone', 'z', 'amax') <= 3.4830\ngini = 0.0538675195691\nsamples = 109", shape="box"] ;
61 -> 62 ;
63 [label="('phone', 'peak_frequency') <= 2.3551\ngini = 0.0363511659808\nsamples = 108", shape="box"] ;
62 -> 63 ;
64 [label="('phone', 'y', 'mean') <= -9.3130\ngini = 0.0185169010394\nsamples = 107", shape="box"] ;
63 -> 64 ;
65 [label="('phone', 'magnitude', 'mean') <= 10.4441\ngini = 0.444444444444\nsamples = 3", shape="box"] ;
64 -> 65 ;
66 [label="gini = 0.0000\nsamples = 1\nvalue = [ 0.  0.  0.  0.  0.  0.  1.  0.  0.  0.  0.  0.]", shape="box"] ;
65 -> 66 ;
67 [label="gini = 0.0000\nsamples = 2\nvalue = [ 0.  0.  2.  0.  0.  0.  0.  0.  0.  0.  0.  0.]", shape="box"] ;
65 -> 67 ;
68 [label="gini = 0.0000\nsamples = 104\nvalue = [   0.    0.  104.    0.    0.    0.    0.    0.    0.    0.    0.    0.]", shape="box"] ;
64 -> 68 ;
69 [label="gini = 0.0000\nsamples = 1\nvalue = [ 0.  0.  0.  0.  0.  0.  1.  0.  0.  0.  0.  0.]", shape="box"] ;
63 -> 69 ;
70 [label="gini = 0.0000\nsamples = 1\nvalue = [ 0.  0.  0.  0.  0.  0.  0.  0.  1.  0.  0.  0.]", shape="box"] ;
62 -> 70 ;
71 [label="('phone', 'magnitude', 'amax') <= 15.3182\ngini = 0.561224489796\nsamples = 14", shape="box"] ;
61 -> 71 ;
72 [label="gini = 0.0000\nsamples = 7\nvalue = [ 0.  0.  0.  0.  0.  0.  7.  0.  0.  0.  0.  0.]", shape="box"] ;
71 -> 72 ;
73 [label="('phone', 'y', 'amax') <= 2.1084\ngini = 0.244897959184\nsamples = 7", shape="box"] ;
71 -> 73 ;
74 [label="gini = 0.0000\nsamples = 6\nvalue = [ 0.  0.  6.  0.  0.  0.  0.  0.  0.  0.  0.  0.]", shape="box"] ;
73 -> 74 ;
75 [label="gini = 0.0000\nsamples = 1\nvalue = [ 0.  0.  0.  0.  0.  0.  0.  0.  1.  0.  0.  0.]", shape="box"] ;
73 -> 75 ;
76 [label="('phone', 'x', 'amax') <= 3.2720\ngini = 0.375\nsamples = 8", shape="box"] ;
60 -> 76 ;
77 [label="gini = 0.0000\nsamples = 2\nvalue = [ 0.  0.  2.  0.  0.  0.  0.  0.  0.  0.  0.  0.]", shape="box"] ;
76 -> 77 ;
78 [label="gini = 0.0000\nsamples = 6\nvalue = [ 6.  0.  0.  0.  0.  0.  0.  0.  0.  0.  0.  0.]", shape="box"] ;
76 -> 78 ;
79 [label="('phone', 'x', 'std') <= 2.5529\ngini = 0.328707085464\nsamples = 37", shape="box"] ;
59 -> 79 ;
80 [label="('phone', 'z', 'mean_average_deviation') <= 2.5575\ngini = 0.6875\nsamples = 8", shape="box"] ;
79 -> 80 ;
81 [label="('phone', 'z', 'mean') <= -2.3191\ngini = 0.56\nsamples = 5", shape="box"] ;
80 -> 81 ;
82 [label="('phone', 'z', 'amax') <= 2.7999\ngini = 0.5\nsamples = 2", shape="box"] ;
81 -> 82 ;
83 [label="gini = 0.0000\nsamples = 1\nvalue = [ 0.  0.  1.  0.  0.  0.  0.  0.  0.  0.  0.  0.]", shape="box"] ;
82 -> 83 ;
84 [label="gini = 0.0000\nsamples = 1\nvalue = [ 0.  0.  0.  0.  0.  0.  0.  0.  1.  0.  0.  0.]", shape="box"] ;
82 -> 84 ;
85 [label="gini = 0.0000\nsamples = 3\nvalue = [ 0.  0.  0.  0.  0.  0.  0.  0.  0.  0.  0.  3.]", shape="box"] ;
81 -> 85 ;
86 [label="gini = 0.0000\nsamples = 3\nvalue = [ 3.  0.  0.  0.  0.  0.  0.  0.  0.  0.  0.  0.]", shape="box"] ;
80 -> 86 ;
87 [label="gini = 0.0000\nsamples = 29\nvalue = [  0.   0.   0.   0.   0.   0.   0.   0.  29.   0.   0.   0.]", shape="box"] ;
79 -> 87 ;
88 [label="('phone', 'corr_x_y') <= 0.2477\ngini = 0.30533905348\nsamples = 211", shape="box"] ;
0 -> 88 ;
89 [label="gini = 0.0000\nsamples = 173\nvalue = [   0.    0.    0.    0.    0.    0.    0.    0.    0.    0.    0.  173.]", shape="box"] ;
88 -> 89 ;
90 [label="('phone', 'y', 'std') <= 6.6067\ngini = 0.308864265928\nsamples = 38", shape="box"] ;
88 -> 90 ;
91 [label="('phone', 'magnitude', 'amax') <= 16.2782\ngini = 0.244897959184\nsamples = 7", shape="box"] ;
90 -> 91 ;
92 [label="gini = 0.0000\nsamples = 1\nvalue = [ 1.  0.  0.  0.  0.  0.  0.  0.  0.  0.  0.  0.]", shape="box"] ;
91 -> 92 ;
93 [label="gini = 0.0000\nsamples = 6\nvalue = [ 0.  0.  0.  0.  0.  0.  0.  0.  6.  0.  0.  0.]", shape="box"] ;
91 -> 93 ;
94 [label="gini = 0.0000\nsamples = 31\nvalue = [  0.   0.   0.   0.   0.   0.   0.  31.   0.   0.   0.   0.]", shape="box"] ;
90 -> 94 ;
}