digraph Tree {
0 [label="('wear', 'entropy') <= 3.3225\ngini = 0.87737972792\nsamples = 908", shape="box"] ;
1 [label="('wear', 'peak_frequency') <= 2.3547\ngini = 0.273425284137\nsamples = 207", shape="box"] ;
0 -> 1 ;
2 [label="gini = 0.0000\nsamples = 174\nvalue = [   0.    0.    0.    0.    0.    0.    0.    0.    0.    0.    0.  174.]", shape="box"] ;
1 -> 2 ;
3 [label="('wear', 'z', 'amax') <= 5.0353\ngini = 0.213039485767\nsamples = 33", shape="box"] ;
1 -> 3 ;
4 [label="gini = 0.0000\nsamples = 4\nvalue = [ 0.  0.  0.  0.  0.  0.  0.  0.  0.  0.  4.  0.]", shape="box"] ;
3 -> 4 ;
5 [label="gini = 0.0000\nsamples = 29\nvalue = [  0.   0.   0.   0.   0.   0.   0.  29.   0.   0.   0.   0.]", shape="box"] ;
3 -> 5 ;
6 [label="('wear', 'magnitude', 'mean') <= 9.9453\ngini = 0.860311639577\nsamples = 701", shape="box"] ;
0 -> 6 ;
7 [label="('wear', 'x', 'mean') <= 4.3149\ngini = 0.791427763762\nsamples = 433", shape="box"] ;
6 -> 7 ;
8 [label="('wear', 'x', 'mean_average_deviation') <= 0.2075\ngini = 0.814357567444\nsamples = 324", shape="box"] ;
7 -> 8 ;
9 [label="('wear', 'z', 'amax') <= 6.9903\ngini = 0.705941410592\nsamples = 167", shape="box"] ;
8 -> 9 ;
10 [label="('wear', 'z', 'mean') <= 1.9299\ngini = 0.665609723874\nsamples = 87", shape="box"] ;
9 -> 10 ;
11 [label="('wear', 'entropy') <= 4.0970\ngini = 0.484911550468\nsamples = 31", shape="box"] ;
10 -> 11 ;
12 [label="gini = 0.0000\nsamples = 7\nvalue = [ 0.  0.  0.  0.  0.  0.  0.  0.  0.  0.  7.  0.]", shape="box"] ;
11 -> 12 ;
13 [label="('wear', 'y', 'amax') <= -7.2087\ngini = 0.225694444444\nsamples = 24", shape="box"] ;
11 -> 13 ;
14 [label="gini = 0.0000\nsamples = 2\nvalue = [ 0.  0.  0.  0.  2.  0.  0.  0.  0.  0.  0.  0.]", shape="box"] ;
13 -> 14 ;
15 [label="('wear', 'flatness') <= 0.0001\ngini = 0.0867768595041\nsamples = 22", shape="box"] ;
13 -> 15 ;
16 [label="gini = 0.0000\nsamples = 1\nvalue = [ 0.  0.  0.  0.  0.  0.  0.  0.  0.  1.  0.  0.]", shape="box"] ;
15 -> 16 ;
17 [label="gini = 0.0000\nsamples = 21\nvalue = [  0.   0.   0.   0.   0.  21.   0.   0.   0.   0.   0.   0.]", shape="box"] ;
15 -> 17 ;
18 [label="('wear', 'peak_frequency') <= 3.7576\ngini = 0.413265306122\nsamples = 56", shape="box"] ;
10 -> 18 ;
19 [label="('wear', 'y', 'amax') <= -8.2744\ngini = 0.170454545455\nsamples = 44", shape="box"] ;
18 -> 19 ;
20 [label="gini = 0.0000\nsamples = 1\nvalue = [ 0.  0.  0.  1.  0.  0.  0.  0.  0.  0.  0.  0.]", shape="box"] ;
19 -> 20 ;
21 [label="('wear', 'entropy') <= 5.7489\ngini = 0.131963223364\nsamples = 43", shape="box"] ;
19 -> 21 ;
22 [label="('wear', 'z', 'mean') <= 5.1862\ngini = 0.0918367346939\nsamples = 42", shape="box"] ;
21 -> 22 ;
23 [label="gini = 0.0000\nsamples = 34\nvalue = [  0.   0.   0.   0.   0.   0.   0.   0.   0.  34.   0.   0.]", shape="box"] ;
22 -> 23 ;
24 [label="('wear', 'x', 'amax') <= -4.3467\ngini = 0.40625\nsamples = 8", shape="box"] ;
22 -> 24 ;
25 [label="('wear', 'x', 'mean_average_deviation') <= 0.0956\ngini = 0.5\nsamples = 2", shape="box"] ;
24 -> 25 ;
26 [label="gini = 0.0000\nsamples = 1\nvalue = [ 0.  0.  1.  0.  0.  0.  0.  0.  0.  0.  0.  0.]", shape="box"] ;
25 -> 26 ;
27 [label="gini = 0.0000\nsamples = 1\nvalue = [ 0.  0.  0.  0.  0.  0.  1.  0.  0.  0.  0.  0.]", shape="box"] ;
25 -> 27 ;
28 [label="gini = 0.0000\nsamples = 6\nvalue = [ 0.  0.  0.  0.  0.  0.  0.  0.  0.  6.  0.  0.]", shape="box"] ;
24 -> 28 ;
29 [label="gini = 0.0000\nsamples = 1\nvalue = [ 0.  0.  1.  0.  0.  0.  0.  0.  0.  0.  0.  0.]", shape="box"] ;
21 -> 29 ;
30 [label="('wear', 'x', 'amax') <= -6.5640\ngini = 0.513888888889\nsamples = 12", shape="box"] ;
18 -> 30 ;
31 [label="gini = 0.0000\nsamples = 8\nvalue = [ 0.  0.  0.  0.  0.  0.  0.  0.  0.  0.  8.  0.]", shape="box"] ;
30 -> 31 ;
32 [label="('wear', 'x', 'mean') <= -5.3512\ngini = 0.625\nsamples = 4", shape="box"] ;
30 -> 32 ;
33 [label="gini = 0.0000\nsamples = 2\nvalue = [ 0.  0.  0.  0.  0.  0.  0.  0.  0.  2.  0.  0.]", shape="box"] ;
32 -> 33 ;
34 [label="('wear', 'z', 'mean_average_deviation') <= 0.2095\ngini = 0.5\nsamples = 2", shape="box"] ;
32 -> 34 ;
35 [label="gini = 0.0000\nsamples = 1\nvalue = [ 0.  0.  0.  0.  0.  0.  1.  0.  0.  0.  0.  0.]", shape="box"] ;
34 -> 35 ;
36 [label="gini = 0.0000\nsamples = 1\nvalue = [ 0.  0.  0.  1.  0.  0.  0.  0.  0.  0.  0.  0.]", shape="box"] ;
34 -> 36 ;
37 [label="('wear', 'x', 'mean') <= 2.6358\ngini = 0.1171875\nsamples = 80", shape="box"] ;
9 -> 37 ;
38 [label="('wear', 'peak_frequency') <= 4.7595\ngini = 0.0259695290859\nsamples = 76", shape="box"] ;
37 -> 38 ;
39 [label="gini = 0.0000\nsamples = 75\nvalue = [  0.  75.   0.   0.   0.   0.   0.   0.   0.   0.   0.   0.]", shape="box"] ;
38 -> 39 ;
40 [label="gini = 0.0000\nsamples = 1\nvalue = [ 0.  0.  0.  0.  0.  0.  1.  0.  0.  0.  0.  0.]", shape="box"] ;
38 -> 40 ;
41 [label="gini = 0.0000\nsamples = 4\nvalue = [ 0.  0.  0.  0.  0.  0.  4.  0.  0.  0.  0.  0.]", shape="box"] ;
37 -> 41 ;
42 [label="('wear', 'magnitude', 'mean') <= 9.7600\ngini = 0.653008235628\nsamples = 157", shape="box"] ;
8 -> 42 ;
43 [label="('wear', 'x', 'amax') <= -0.6301\ngini = 0.359669357939\nsamples = 102", shape="box"] ;
42 -> 43 ;
44 [label="('wear', 'corr_x_y') <= -0.3976\ngini = 0.132653061224\nsamples = 14", shape="box"] ;
43 -> 44 ;
45 [label="gini = 0.0000\nsamples = 13\nvalue = [  0.   0.   0.   0.   0.   0.  13.   0.   0.   0.   0.   0.]", shape="box"] ;
44 -> 45 ;
46 [label="gini = 0.0000\nsamples = 1\nvalue = [ 0.  0.  0.  1.  0.  0.  0.  0.  0.  0.  0.  0.]", shape="box"] ;
44 -> 46 ;
47 [label="('wear', 'corr_x_y') <= -0.8006\ngini = 0.188791322314\nsamples = 88", shape="box"] ;
43 -> 47 ;
48 [label="('wear', 'corr_x_y') <= -0.9613\ngini = 0.64\nsamples = 5", shape="box"] ;
47 -> 48 ;
49 [label="gini = 0.0000\nsamples = 2\nvalue = [ 0.  2.  0.  0.  0.  0.  0.  0.  0.  0.  0.  0.]", shape="box"] ;
48 -> 49 ;
50 [label="('wear', 'z', 'mean') <= 8.5790\ngini = 0.444444444444\nsamples = 3", shape="box"] ;
48 -> 50 ;
51 [label="gini = 0.0000\nsamples = 2\nvalue = [ 0.  0.  0.  0.  0.  0.  2.  0.  0.  0.  0.  0.]", shape="box"] ;
50 -> 51 ;
52 [label="gini = 0.0000\nsamples = 1\nvalue = [ 1.  0.  0.  0.  0.  0.  0.  0.  0.  0.  0.  0.]", shape="box"] ;
50 -> 52 ;
53 [label="('wear', 'magnitude', 'mean_average_deviation') <= 0.1502\ngini = 0.0917404557991\nsamples = 83", shape="box"] ;
47 -> 53 ;
54 [label="('wear', 'peak_frequency') <= 2.0540\ngini = 0.408163265306\nsamples = 14", shape="box"] ;
53 -> 54 ;
55 [label="('wear', 'magnitude', 'mean_average_deviation') <= 0.1492\ngini = 0.18\nsamples = 10", shape="box"] ;
54 -> 55 ;
56 [label="gini = 0.0000\nsamples = 9\nvalue = [ 0.  0.  0.  9.  0.  0.  0.  0.  0.  0.  0.  0.]", shape="box"] ;
55 -> 56 ;
57 [label="gini = 0.0000\nsamples = 1\nvalue = [ 0.  1.  0.  0.  0.  0.  0.  0.  0.  0.  0.  0.]", shape="box"] ;
55 -> 57 ;
58 [label="('wear', 'entropy') <= 5.1682\ngini = 0.375\nsamples = 4", shape="box"] ;
54 -> 58 ;
59 [label="gini = 0.0000\nsamples = 3\nvalue = [ 0.  3.  0.  0.  0.  0.  0.  0.  0.  0.  0.  0.]", shape="box"] ;
58 -> 59 ;
60 [label="gini = 0.0000\nsamples = 1\nvalue = [ 0.  0.  0.  1.  0.  0.  0.  0.  0.  0.  0.  0.]", shape="box"] ;
58 -> 60 ;
61 [label="gini = 0.0000\nsamples = 69\nvalue = [  0.   0.   0.  69.   0.   0.   0.   0.   0.   0.   0.   0.]", shape="box"] ;
53 -> 61 ;
62 [label="('wear', 'z', 'mean') <= 4.2436\ngini = 0.794710743802\nsamples = 55", shape="box"] ;
42 -> 62 ;
63 [label="('wear', 'y', 'mean') <= -7.0068\ngini = 0.736111111111\nsamples = 24", shape="box"] ;
62 -> 63 ;
64 [label="gini = 0.0000\nsamples = 10\nvalue = [  0.   0.   0.   0.  10.   0.   0.   0.   0.   0.   0.   0.]", shape="box"] ;
63 -> 64 ;
65 [label="('wear', 'y', 'mean_average_deviation') <= 0.7953\ngini = 0.734693877551\nsamples = 14", shape="box"] ;
63 -> 65 ;
66 [label="('wear', 'z', 'amax') <= 3.8853\ngini = 0.244897959184\nsamples = 7", shape="box"] ;
65 -> 66 ;
67 [label="gini = 0.0000\nsamples = 6\nvalue = [ 0.  0.  0.  0.  0.  6.  0.  0.  0.  0.  0.  0.]", shape="box"] ;
66 -> 67 ;
68 [label="gini = 0.0000\nsamples = 1\nvalue = [ 0.  0.  0.  0.  0.  0.  0.  0.  0.  1.  0.  0.]", shape="box"] ;
66 -> 68 ;
69 [label="('wear', 'x', 'amax') <= -0.3207\ngini = 0.734693877551\nsamples = 7", shape="box"] ;
65 -> 69 ;
70 [label="('wear', 'x', 'mean_average_deviation') <= 0.5216\ngini = 0.375\nsamples = 4", shape="box"] ;
69 -> 70 ;
71 [label="gini = 0.0000\nsamples = 1\nvalue = [ 0.  0.  1.  0.  0.  0.  0.  0.  0.  0.  0.  0.]", shape="box"] ;
70 -> 71 ;
72 [label="gini = 0.0000\nsamples = 3\nvalue = [ 0.  0.  0.  0.  0.  0.  0.  0.  0.  0.  3.  0.]", shape="box"] ;
70 -> 72 ;
73 [label="('wear', 'magnitude', 'amax') <= 12.5953\ngini = 0.666666666667\nsamples = 3", shape="box"] ;
69 -> 73 ;
74 [label="gini = 0.0000\nsamples = 1\nvalue = [ 0.  0.  0.  0.  0.  0.  0.  0.  0.  1.  0.  0.]", shape="box"] ;
73 -> 74 ;
75 [label="('wear', 'corr_x_z') <= 0.1821\ngini = 0.5\nsamples = 2", shape="box"] ;
73 -> 75 ;
76 [label="gini = 0.0000\nsamples = 1\nvalue = [ 0.  1.  0.  0.  0.  0.  0.  0.  0.  0.  0.  0.]", shape="box"] ;
75 -> 76 ;
77 [label="gini = 0.0000\nsamples = 1\nvalue = [ 1.  0.  0.  0.  0.  0.  0.  0.  0.  0.  0.  0.]", shape="box"] ;
75 -> 77 ;
78 [label="('wear', 'y', 'mean') <= -0.7690\ngini = 0.555671175858\nsamples = 31", shape="box"] ;
62 -> 78 ;
79 [label="('wear', 'magnitude', 'mean') <= 9.9303\ngini = 0.497027348395\nsamples = 29", shape="box"] ;
78 -> 79 ;
80 [label="('wear', 'corr_y_z') <= -0.4731\ngini = 0.433470507545\nsamples = 27", shape="box"] ;
79 -> 80 ;
81 [label="gini = 0.0000\nsamples = 1\nvalue = [ 0.  0.  0.  0.  0.  0.  0.  0.  0.  1.  0.  0.]", shape="box"] ;
80 -> 81 ;
82 [label="('wear', 'corr_y_z') <= 0.9073\ngini = 0.390532544379\nsamples = 26", shape="box"] ;
80 -> 82 ;
83 [label="('wear', 'z', 'mean') <= 6.8170\ngini = 0.3424\nsamples = 25", shape="box"] ;
82 -> 83 ;
84 [label="gini = 0.0000\nsamples = 14\nvalue = [  0.   0.   0.   0.   0.   0.  14.   0.   0.   0.   0.   0.]", shape="box"] ;
83 -> 84 ;
85 [label="('wear', 'entropy') <= 5.1553\ngini = 0.611570247934\nsamples = 11", shape="box"] ;
83 -> 85 ;
86 [label="('wear', 'magnitude', 'std') <= 0.5613\ngini = 0.56\nsamples = 5", shape="box"] ;
85 -> 86 ;
87 [label="('wear', 'x', 'mean_average_deviation') <= 1.6849\ngini = 0.5\nsamples = 2", shape="box"] ;
86 -> 87 ;
88 [label="gini = 0.0000\nsamples = 1\nvalue = [ 0.  1.  0.  0.  0.  0.  0.  0.  0.  0.  0.  0.]", shape="box"] ;
87 -> 88 ;
89 [label="gini = 0.0000\nsamples = 1\nvalue = [ 0.  0.  0.  0.  0.  0.  0.  0.  0.  0.  1.  0.]", shape="box"] ;
87 -> 89 ;
90 [label="gini = 0.0000\nsamples = 3\nvalue = [ 0.  0.  0.  3.  0.  0.  0.  0.  0.  0.  0.  0.]", shape="box"] ;
86 -> 90 ;
91 [label="gini = 0.0000\nsamples = 6\nvalue = [ 0.  0.  0.  0.  0.  0.  6.  0.  0.  0.  0.  0.]", shape="box"] ;
85 -> 91 ;
92 [label="gini = 0.0000\nsamples = 1\nvalue = [ 0.  0.  0.  0.  1.  0.  0.  0.  0.  0.  0.  0.]", shape="box"] ;
82 -> 92 ;
93 [label="('wear', 'corr_y_z') <= 0.4568\ngini = 0.5\nsamples = 2", shape="box"] ;
79 -> 93 ;
94 [label="gini = 0.0000\nsamples = 1\nvalue = [ 0.  0.  0.  0.  0.  0.  0.  0.  0.  0.  1.  0.]", shape="box"] ;
93 -> 94 ;
95 [label="gini = 0.0000\nsamples = 1\nvalue = [ 0.  0.  0.  1.  0.  0.  0.  0.  0.  0.  0.  0.]", shape="box"] ;
93 -> 95 ;
96 [label="gini = 0.0000\nsamples = 2\nvalue = [ 2.  0.  0.  0.  0.  0.  0.  0.  0.  0.  0.  0.]", shape="box"] ;
78 -> 96 ;
97 [label="('wear', 'y', 'amax') <= 6.1063\ngini = 0.0875347192997\nsamples = 109", shape="box"] ;
7 -> 97 ;
98 [label="('wear', 'y', 'mean') <= 0.3237\ngini = 0.0188662131519\nsamples = 105", shape="box"] ;
97 -> 98 ;
99 [label="gini = 0.0000\nsamples = 104\nvalue = [   0.    0.    0.    0.    0.    0.  104.    0.    0.    0.    0.    0.]", shape="box"] ;
98 -> 99 ;
100 [label="gini = 0.0000\nsamples = 1\nvalue = [ 1.  0.  0.  0.  0.  0.  0.  0.  0.  0.  0.  0.]", shape="box"] ;
98 -> 100 ;
101 [label="gini = 0.0000\nsamples = 4\nvalue = [ 4.  0.  0.  0.  0.  0.  0.  0.  0.  0.  0.  0.]", shape="box"] ;
97 -> 101 ;
102 [label="('wear', 'y', 'mean') <= -6.4938\ngini = 0.631376698597\nsamples = 268", shape="box"] ;
6 -> 102 ;
103 [label="('wear', 'magnitude', 'mean') <= 13.9599\ngini = 0.148545706371\nsamples = 76", shape="box"] ;
102 -> 103 ;
104 [label="('wear', 'x', 'std') <= 0.5414\ngini = 0.0799399512104\nsamples = 73", shape="box"] ;
103 -> 104 ;
105 [label="gini = 0.0000\nsamples = 1\nvalue = [ 0.  0.  1.  0.  0.  0.  0.  0.  0.  0.  0.  0.]", shape="box"] ;
104 -> 105 ;
106 [label="('wear', 'z', 'mean') <= 3.7684\ngini = 0.0543981481481\nsamples = 72", shape="box"] ;
104 -> 106 ;
107 [label="('wear', 'entropy') <= 3.8576\ngini = 0.0277722674073\nsamples = 71", shape="box"] ;
106 -> 107 ;
108 [label="gini = 0.0000\nsamples = 1\nvalue = [ 0.  0.  0.  0.  0.  0.  0.  0.  0.  0.  0.  1.]", shape="box"] ;
107 -> 108 ;
109 [label="gini = 0.0000\nsamples = 70\nvalue = [  0.   0.   0.   0.  70.   0.   0.   0.   0.   0.   0.   0.]", shape="box"] ;
107 -> 109 ;
110 [label="gini = 0.0000\nsamples = 1\nvalue = [ 1.  0.  0.  0.  0.  0.  0.  0.  0.  0.  0.  0.]", shape="box"] ;
106 -> 110 ;
111 [label="gini = 0.0000\nsamples = 3\nvalue = [ 0.  0.  3.  0.  0.  0.  0.  0.  0.  0.  0.  0.]", shape="box"] ;
103 -> 111 ;
112 [label="('wear', 'x', 'mean_average_deviation') <= 2.9149\ngini = 0.456651475694\nsamples = 192", shape="box"] ;
102 -> 112 ;
113 [label="('wear', 'x', 'mean') <= -5.4102\ngini = 0.179369707067\nsamples = 147", shape="box"] ;
112 -> 113 ;
114 [label="('wear', 'z', 'amax') <= 4.3250\ngini = 0.0570088976504\nsamples = 137", shape="box"] ;
113 -> 114 ;
115 [label="gini = 0.0000\nsamples = 3\nvalue = [ 0.  0.  0.  0.  0.  3.  0.  0.  0.  0.  0.  0.]", shape="box"] ;
114 -> 115 ;
116 [label="('wear', 'x', 'mean_average_deviation') <= 0.3754\ngini = 0.0148139897527\nsamples = 134", shape="box"] ;
114 -> 116 ;
117 [label="gini = 0.0000\nsamples = 1\nvalue = [ 0.  0.  0.  0.  0.  0.  0.  0.  0.  0.  0.  1.]", shape="box"] ;
116 -> 117 ;
118 [label="gini = 0.0000\nsamples = 133\nvalue = [   0.    0.  133.    0.    0.    0.    0.    0.    0.    0.    0.    0.]", shape="box"] ;
116 -> 118 ;
119 [label="('wear', 'magnitude', 'mean_average_deviation') <= 1.2695\ngini = 0.66\nsamples = 10", shape="box"] ;
113 -> 119 ;
120 [label="gini = 0.0000\nsamples = 4\nvalue = [ 4.  0.  0.  0.  0.  0.  0.  0.  0.  0.  0.  0.]", shape="box"] ;
119 -> 120 ;
121 [label="('wear', 'magnitude', 'amax') <= 23.7795\ngini = 0.5\nsamples = 6", shape="box"] ;
119 -> 121 ;
122 [label="gini = 0.0000\nsamples = 3\nvalue = [ 0.  0.  0.  0.  0.  0.  0.  0.  3.  0.  0.  0.]", shape="box"] ;
121 -> 122 ;
123 [label="gini = 0.0000\nsamples = 3\nvalue = [ 0.  0.  0.  0.  3.  0.  0.  0.  0.  0.  0.  0.]", shape="box"] ;
121 -> 123 ;
124 [label="('wear', 'magnitude', 'mean_average_deviation') <= 1.4035\ngini = 0.38024691358\nsamples = 45", shape="box"] ;
112 -> 124 ;
125 [label="('wear', 'x', 'mean') <= -3.6658\ngini = 0.444444444444\nsamples = 6", shape="box"] ;
124 -> 125 ;
126 [label="gini = 0.0000\nsamples = 2\nvalue = [ 0.  0.  2.  0.  0.  0.  0.  0.  0.  0.  0.  0.]", shape="box"] ;
125 -> 126 ;
127 [label="gini = 0.0000\nsamples = 4\nvalue = [ 4.  0.  0.  0.  0.  0.  0.  0.  0.  0.  0.  0.]", shape="box"] ;
125 -> 127 ;
128 [label="('wear', 'corr_x_y') <= 0.5075\ngini = 0.190664036818\nsamples = 39", shape="box"] ;
124 -> 128 ;
129 [label="gini = 0.0000\nsamples = 35\nvalue = [  0.   0.   0.   0.   0.   0.   0.   0.  35.   0.   0.   0.]", shape="box"] ;
128 -> 129 ;
130 [label="('wear', 'y', 'mean') <= -4.4306\ngini = 0.625\nsamples = 4", shape="box"] ;
128 -> 130 ;
131 [label="gini = 0.0000\nsamples = 2\nvalue = [ 0.  0.  0.  0.  0.  0.  0.  2.  0.  0.  0.  0.]", shape="box"] ;
130 -> 131 ;
132 [label="('wear', 'z', 'amax') <= 13.9488\ngini = 0.5\nsamples = 2", shape="box"] ;
130 -> 132 ;
133 [label="gini = 0.0000\nsamples = 1\nvalue = [ 0.  0.  1.  0.  0.  0.  0.  0.  0.  0.  0.  0.]", shape="box"] ;
132 -> 133 ;
134 [label="gini = 0.0000\nsamples = 1\nvalue = [ 0.  0.  0.  0.  0.  0.  0.  0.  0.  0.  0.  1.]", shape="box"] ;
132 -> 134 ;
}