digraph Tree {
0 [label="('wear', 'entropy') <= 3.3868\ngini = 0.877534980302\nsamples = 908", shape="box"] ;
1 [label="('wear', 'peak_frequency') <= 2.3046\ngini = 0.297481310075\nsamples = 212", shape="box"] ;
0 -> 1 ;
2 [label="gini = 0.0000\nsamples = 175\nvalue = [   0.    0.    0.    0.    0.    0.    0.    0.    0.    0.    0.  175.]", shape="box"] ;
1 -> 2 ;
3 [label="('wear', 'peak_frequency') <= 3.3564\ngini = 0.306793279766\nsamples = 37", shape="box"] ;
1 -> 3 ;
4 [label="gini = 0.0000\nsamples = 30\nvalue = [  0.   0.   0.   0.   0.   0.   0.  30.   0.   0.   0.   0.]", shape="box"] ;
3 -> 4 ;
5 [label="gini = 0.0000\nsamples = 7\nvalue = [ 0.  0.  0.  0.  0.  0.  0.  0.  0.  0.  7.  0.]", shape="box"] ;
3 -> 5 ;
6 [label="('wear', 'magnitude', 'mean') <= 9.9175\ngini = 0.858807306117\nsamples = 696", shape="box"] ;
0 -> 6 ;
7 [label="('wear', 'x', 'mean') <= 4.3149\ngini = 0.785442176871\nsamples = 420", shape="box"] ;
6 -> 7 ;
8 [label="('wear', 'z', 'mean_average_deviation') <= 0.3188\ngini = 0.804434191977\nsamples = 306", shape="box"] ;
7 -> 8 ;
9 [label="('wear', 'x', 'mean') <= -1.0894\ngini = 0.734226671958\nsamples = 181", shape="box"] ;
8 -> 9 ;
10 [label="('wear', 'x', 'mean') <= -5.3512\ngini = 0.742838541667\nsamples = 96", shape="box"] ;
9 -> 10 ;
11 [label="('wear', 'magnitude', 'mean') <= 9.8847\ngini = 0.63403944485\nsamples = 74", shape="box"] ;
10 -> 11 ;
12 [label="('wear', 'peak_frequency') <= 3.7574\ngini = 0.518430439952\nsamples = 58", shape="box"] ;
11 -> 12 ;
13 [label="('wear', 'y', 'amax') <= -6.5129\ngini = 0.291383219955\nsamples = 42", shape="box"] ;
12 -> 13 ;
14 [label="gini = 0.0000\nsamples = 4\nvalue = [ 0.  0.  0.  0.  0.  4.  0.  0.  0.  0.  0.  0.]", shape="box"] ;
13 -> 14 ;
15 [label="('wear', 'z', 'amax') <= 4.9869\ngini = 0.145429362881\nsamples = 38", shape="box"] ;
13 -> 15 ;
16 [label="gini = 0.0000\nsamples = 33\nvalue = [  0.   0.   0.   0.   0.   0.   0.   0.   0.  33.   0.   0.]", shape="box"] ;
15 -> 16 ;
17 [label="('wear', 'z', 'mean') <= 5.5397\ngini = 0.48\nsamples = 5", shape="box"] ;
15 -> 17 ;
18 [label="gini = 0.0000\nsamples = 3\nvalue = [ 0.  0.  3.  0.  0.  0.  0.  0.  0.  0.  0.  0.]", shape="box"] ;
17 -> 18 ;
19 [label="gini = 0.0000\nsamples = 2\nvalue = [ 0.  0.  0.  0.  0.  0.  0.  0.  0.  2.  0.  0.]", shape="box"] ;
17 -> 19 ;
20 [label="('wear', 'x', 'mean') <= -6.7847\ngini = 0.3984375\nsamples = 16", shape="box"] ;
12 -> 20 ;
21 [label="('wear', 'magnitude', 'amax') <= 10.7012\ngini = 0.14201183432\nsamples = 13", shape="box"] ;
20 -> 21 ;
22 [label="gini = 0.0000\nsamples = 12\nvalue = [  0.   0.   0.   0.   0.   0.   0.   0.   0.   0.  12.   0.]", shape="box"] ;
21 -> 22 ;
23 [label="gini = 0.0000\nsamples = 1\nvalue = [ 0.  0.  0.  0.  0.  0.  0.  0.  0.  1.  0.  0.]", shape="box"] ;
21 -> 23 ;
24 [label="('wear', 'y', 'mean_average_deviation') <= 0.1373\ngini = 0.444444444444\nsamples = 3", shape="box"] ;
20 -> 24 ;
25 [label="gini = 0.0000\nsamples = 2\nvalue = [ 0.  0.  0.  0.  0.  0.  0.  0.  0.  2.  0.  0.]", shape="box"] ;
24 -> 25 ;
26 [label="gini = 0.0000\nsamples = 1\nvalue = [ 0.  0.  1.  0.  0.  0.  0.  0.  0.  0.  0.  0.]", shape="box"] ;
24 -> 26 ;
27 [label="gini = 0.0000\nsamples = 16\nvalue = [  0.   0.   0.   0.   0.  16.   0.   0.   0.   0.   0.   0.]", shape="box"] ;
11 -> 27 ;
28 [label="('wear', 'magnitude', 'mean') <= 9.8320\ngini = 0.243801652893\nsamples = 22", shape="box"] ;
10 -> 28 ;
29 [label="('wear', 'x', 'mean') <= -1.6981\ngini = 0.095\nsamples = 20", shape="box"] ;
28 -> 29 ;
30 [label="gini = 0.0000\nsamples = 19\nvalue = [  0.   0.   0.   0.   0.   0.  19.   0.   0.   0.   0.   0.]", shape="box"] ;
29 -> 30 ;
31 [label="gini = 0.0000\nsamples = 1\nvalue = [ 0.  0.  0.  1.  0.  0.  0.  0.  0.  0.  0.  0.]", shape="box"] ;
29 -> 31 ;
32 [label="gini = 0.0000\nsamples = 2\nvalue = [ 0.  0.  0.  0.  2.  0.  0.  0.  0.  0.  0.  0.]", shape="box"] ;
28 -> 32 ;
33 [label="('wear', 'z', 'amax') <= 7.4411\ngini = 0.176055363322\nsamples = 85", shape="box"] ;
9 -> 33 ;
34 [label="('wear', 'y', 'std') <= 0.1269\ngini = 0.444444444444\nsamples = 6", shape="box"] ;
33 -> 34 ;
35 [label="gini = 0.0000\nsamples = 4\nvalue = [ 0.  0.  0.  0.  0.  0.  0.  0.  0.  4.  0.  0.]", shape="box"] ;
34 -> 35 ;
36 [label="gini = 0.0000\nsamples = 2\nvalue = [ 0.  0.  0.  2.  0.  0.  0.  0.  0.  0.  0.  0.]", shape="box"] ;
34 -> 36 ;
37 [label="('wear', 'x', 'mean') <= 2.6358\ngini = 0.0493510655344\nsamples = 79", shape="box"] ;
33 -> 37 ;
38 [label="gini = 0.0000\nsamples = 77\nvalue = [  0.  77.   0.   0.   0.   0.   0.   0.   0.   0.   0.   0.]", shape="box"] ;
37 -> 38 ;
39 [label="gini = 0.0000\nsamples = 2\nvalue = [ 0.  0.  0.  0.  0.  0.  2.  0.  0.  0.  0.  0.]", shape="box"] ;
37 -> 39 ;
40 [label="('wear', 'magnitude', 'mean') <= 9.7564\ngini = 0.536448\nsamples = 125", shape="box"] ;
8 -> 40 ;
41 [label="('wear', 'corr_x_y') <= -0.8102\ngini = 0.113662131519\nsamples = 84", shape="box"] ;
40 -> 41 ;
42 [label="gini = 0.0000\nsamples = 2\nvalue = [ 0.  0.  0.  0.  0.  0.  2.  0.  0.  0.  0.  0.]", shape="box"] ;
41 -> 42 ;
43 [label="('wear', 'x', 'mean_average_deviation') <= 0.1932\ngini = 0.070493753718\nsamples = 82", shape="box"] ;
41 -> 43 ;
44 [label="gini = 0.0000\nsamples = 1\nvalue = [ 0.  1.  0.  0.  0.  0.  0.  0.  0.  0.  0.  0.]", shape="box"] ;
43 -> 44 ;
45 [label="('wear', 'magnitude', 'mean') <= 9.7374\ngini = 0.0481633897272\nsamples = 81", shape="box"] ;
43 -> 45 ;
46 [label="gini = 0.0000\nsamples = 72\nvalue = [  0.   0.   0.  72.   0.   0.   0.   0.   0.   0.   0.   0.]", shape="box"] ;
45 -> 46 ;
47 [label="('wear', 'z', 'std') <= 1.2772\ngini = 0.345679012346\nsamples = 9", shape="box"] ;
45 -> 47 ;
48 [label="gini = 0.0000\nsamples = 2\nvalue = [ 0.  2.  0.  0.  0.  0.  0.  0.  0.  0.  0.  0.]", shape="box"] ;
47 -> 48 ;
49 [label="gini = 0.0000\nsamples = 7\nvalue = [ 0.  0.  0.  7.  0.  0.  0.  0.  0.  0.  0.  0.]", shape="box"] ;
47 -> 49 ;
50 [label="('wear', 'y', 'mean') <= -8.1145\ngini = 0.825698988697\nsamples = 41", shape="box"] ;
40 -> 50 ;
51 [label="gini = 0.0000\nsamples = 6\nvalue = [ 0.  0.  0.  0.  6.  0.  0.  0.  0.  0.  0.  0.]", shape="box"] ;
50 -> 51 ;
52 [label="('wear', 'y', 'mean') <= -1.1551\ngini = 0.8\nsamples = 35", shape="box"] ;
50 -> 52 ;
53 [label="('wear', 'x', 'amax') <= 4.4514\ngini = 0.770031217482\nsamples = 31", shape="box"] ;
52 -> 53 ;
54 [label="('wear', 'magnitude', 'amax') <= 11.9585\ngini = 0.816326530612\nsamples = 14", shape="box"] ;
53 -> 54 ;
55 [label="('wear', 'z', 'amax') <= 4.1340\ngini = 0.444444444444\nsamples = 6", shape="box"] ;
54 -> 55 ;
56 [label="gini = 0.0000\nsamples = 2\nvalue = [ 0.  0.  0.  0.  0.  2.  0.  0.  0.  0.  0.  0.]", shape="box"] ;
55 -> 56 ;
57 [label="gini = 0.0000\nsamples = 4\nvalue = [ 0.  0.  0.  0.  0.  0.  0.  0.  0.  0.  4.  0.]", shape="box"] ;
55 -> 57 ;
58 [label="('wear', 'entropy') <= 4.9368\ngini = 0.75\nsamples = 8", shape="box"] ;
54 -> 58 ;
59 [label="gini = 0.0000\nsamples = 3\nvalue = [ 0.  0.  0.  0.  0.  0.  0.  0.  0.  3.  0.  0.]", shape="box"] ;
58 -> 59 ;
60 [label="('wear', 'z', 'mean') <= 7.1281\ngini = 0.72\nsamples = 5", shape="box"] ;
58 -> 60 ;
61 [label="('wear', 'x', 'mean_average_deviation') <= 0.7985\ngini = 0.666666666667\nsamples = 3", shape="box"] ;
60 -> 61 ;
62 [label="gini = 0.0000\nsamples = 1\nvalue = [ 0.  0.  1.  0.  0.  0.  0.  0.  0.  0.  0.  0.]", shape="box"] ;
61 -> 62 ;
63 [label="('wear', 'corr_x_z') <= 0.3340\ngini = 0.5\nsamples = 2", shape="box"] ;
61 -> 63 ;
64 [label="gini = 0.0000\nsamples = 1\nvalue = [ 0.  0.  0.  0.  0.  0.  1.  0.  0.  0.  0.  0.]", shape="box"] ;
63 -> 64 ;
65 [label="gini = 0.0000\nsamples = 1\nvalue = [ 0.  0.  0.  0.  1.  0.  0.  0.  0.  0.  0.  0.]", shape="box"] ;
63 -> 65 ;
66 [label="gini = 0.0000\nsamples = 2\nvalue = [ 0.  0.  0.  2.  0.  0.  0.  0.  0.  0.  0.  0.]", shape="box"] ;
60 -> 66 ;
67 [label="('wear', 'peak_frequency') <= 3.3566\ngini = 0.470588235294\nsamples = 17", shape="box"] ;
53 -> 67 ;
68 [label="('wear', 'entropy') <= 4.7710\ngini = 0.337777777778\nsamples = 15", shape="box"] ;
67 -> 68 ;
69 [label="('wear', 'z', 'mean_average_deviation') <= 1.5924\ngini = 0.625\nsamples = 4", shape="box"] ;
68 -> 69 ;
70 [label="('wear', 'magnitude', 'amax') <= 16.0632\ngini = 0.5\nsamples = 2", shape="box"] ;
69 -> 70 ;
71 [label="gini = 0.0000\nsamples = 1\nvalue = [ 1.  0.  0.  0.  0.  0.  0.  0.  0.  0.  0.  0.]", shape="box"] ;
70 -> 71 ;
72 [label="gini = 0.0000\nsamples = 1\nvalue = [ 0.  0.  0.  0.  0.  0.  1.  0.  0.  0.  0.  0.]", shape="box"] ;
70 -> 72 ;
73 [label="gini = 0.0000\nsamples = 2\nvalue = [ 0.  0.  0.  2.  0.  0.  0.  0.  0.  0.  0.  0.]", shape="box"] ;
69 -> 73 ;
74 [label="gini = 0.0000\nsamples = 11\nvalue = [  0.   0.   0.   0.   0.   0.  11.   0.   0.   0.   0.   0.]", shape="box"] ;
68 -> 74 ;
75 [label="gini = 0.0000\nsamples = 2\nvalue = [ 0.  2.  0.  0.  0.  0.  0.  0.  0.  0.  0.  0.]", shape="box"] ;
67 -> 75 ;
76 [label="gini = 0.0000\nsamples = 4\nvalue = [ 4.  0.  0.  0.  0.  0.  0.  0.  0.  0.  0.  0.]", shape="box"] ;
52 -> 76 ;
77 [label="('wear', 'y', 'amax') <= 5.7595\ngini = 0.0997229916898\nsamples = 114", shape="box"] ;
7 -> 77 ;
78 [label="gini = 0.0000\nsamples = 108\nvalue = [   0.    0.    0.    0.    0.    0.  108.    0.    0.    0.    0.    0.]", shape="box"] ;
77 -> 78 ;
79 [label="gini = 0.0000\nsamples = 6\nvalue = [ 6.  0.  0.  0.  0.  0.  0.  0.  0.  0.  0.  0.]", shape="box"] ;
77 -> 79 ;
80 [label="('wear', 'x', 'mean') <= -6.1362\ngini = 0.65138626339\nsamples = 276", shape="box"] ;
6 -> 80 ;
81 [label="('wear', 'x', 'std') <= 3.2642\ngini = 0.355629017447\nsamples = 165", shape="box"] ;
80 -> 81 ;
82 [label="('wear', 'x', 'mean') <= -9.2634\ngini = 0.136210880067\nsamples = 138", shape="box"] ;
81 -> 82 ;
83 [label="('wear', 'x', 'mean') <= -9.7209\ngini = 0.21875\nsamples = 8", shape="box"] ;
82 -> 83 ;
84 [label="gini = 0.0000\nsamples = 1\nvalue = [ 0.  0.  0.  0.  0.  0.  0.  0.  0.  0.  0.  1.]", shape="box"] ;
83 -> 84 ;
85 [label="gini = 0.0000\nsamples = 7\nvalue = [ 0.  0.  0.  0.  0.  7.  0.  0.  0.  0.  0.  0.]", shape="box"] ;
83 -> 85 ;
86 [label="('wear', 'magnitude', 'mean') <= 9.9315\ngini = 0.0304142011834\nsamples = 130", shape="box"] ;
82 -> 86 ;
87 [label="('wear', 'y', 'mean_average_deviation') <= 0.4482\ngini = 0.5\nsamples = 2", shape="box"] ;
86 -> 87 ;
88 [label="gini = 0.0000\nsamples = 1\nvalue = [ 0.  0.  0.  0.  0.  1.  0.  0.  0.  0.  0.  0.]", shape="box"] ;
87 -> 88 ;
89 [label="gini = 0.0000\nsamples = 1\nvalue = [ 0.  0.  0.  0.  0.  0.  0.  0.  0.  1.  0.  0.]", shape="box"] ;
87 -> 89 ;
90 [label="gini = 0.0000\nsamples = 128\nvalue = [   0.    0.  128.    0.    0.    0.    0.    0.    0.    0.    0.    0.]", shape="box"] ;
86 -> 90 ;
91 [label="('wear', 'y', 'amax') <= 7.0841\ngini = 0.203017832647\nsamples = 27", shape="box"] ;
81 -> 91 ;
92 [label="gini = 0.0000\nsamples = 24\nvalue = [  0.   0.   0.   0.   0.   0.   0.   0.  24.   0.   0.   0.]", shape="box"] ;
91 -> 92 ;
93 [label="('wear', 'corr_y_z') <= -0.3396\ngini = 0.444444444444\nsamples = 3", shape="box"] ;
91 -> 93 ;
94 [label="gini = 0.0000\nsamples = 1\nvalue = [ 0.  0.  0.  0.  0.  0.  0.  1.  0.  0.  0.  0.]", shape="box"] ;
93 -> 94 ;
95 [label="gini = 0.0000\nsamples = 2\nvalue = [ 0.  0.  2.  0.  0.  0.  0.  0.  0.  0.  0.  0.]", shape="box"] ;
93 -> 95 ;
96 [label="('wear', 'x', 'std') <= 2.9560\ngini = 0.492005519033\nsamples = 111", shape="box"] ;
80 -> 96 ;
97 [label="('wear', 'magnitude', 'mean') <= 13.5568\ngini = 0.0965625\nsamples = 80", shape="box"] ;
96 -> 97 ;
98 [label="('wear', 'x', 'mean') <= -2.8134\ngini = 0.0502958579882\nsamples = 78", shape="box"] ;
97 -> 98 ;
99 [label="gini = 0.0000\nsamples = 76\nvalue = [  0.   0.   0.   0.  76.   0.   0.   0.   0.   0.   0.   0.]", shape="box"] ;
98 -> 99 ;
100 [label="('wear', 'y', 'std') <= 3.3832\ngini = 0.5\nsamples = 2", shape="box"] ;
98 -> 100 ;
101 [label="gini = 0.0000\nsamples = 1\nvalue = [ 0.  0.  0.  0.  0.  0.  0.  0.  0.  0.  1.  0.]", shape="box"] ;
100 -> 101 ;
102 [label="gini = 0.0000\nsamples = 1\nvalue = [ 1.  0.  0.  0.  0.  0.  0.  0.  0.  0.  0.  0.]", shape="box"] ;
100 -> 102 ;
103 [label="gini = 0.0000\nsamples = 2\nvalue = [ 0.  0.  2.  0.  0.  0.  0.  0.  0.  0.  0.  0.]", shape="box"] ;
97 -> 103 ;
104 [label="('wear', 'z', 'mean') <= 5.9387\ngini = 0.701352757544\nsamples = 31", shape="box"] ;
96 -> 104 ;
105 [label="('wear', 'x', 'mean') <= -3.9267\ngini = 0.726643598616\nsamples = 17", shape="box"] ;
104 -> 105 ;
106 [label="('wear', 'x', 'mean') <= -5.6964\ngini = 0.518518518519\nsamples = 9", shape="box"] ;
105 -> 106 ;
107 [label="('wear', 'x', 'mean') <= -5.9230\ngini = 0.666666666667\nsamples = 3", shape="box"] ;
106 -> 107 ;
108 [label="gini = 0.0000\nsamples = 1\nvalue = [ 0.  0.  0.  0.  0.  0.  0.  0.  0.  0.  0.  1.]", shape="box"] ;
107 -> 108 ;
109 [label="('wear', 'magnitude', 'std') <= 3.5530\ngini = 0.5\nsamples = 2", shape="box"] ;
107 -> 109 ;
110 [label="gini = 0.0000\nsamples = 1\nvalue = [ 0.  0.  0.  0.  1.  0.  0.  0.  0.  0.  0.  0.]", shape="box"] ;
109 -> 110 ;
111 [label="gini = 0.0000\nsamples = 1\nvalue = [ 0.  0.  0.  0.  0.  0.  0.  0.  1.  0.  0.  0.]", shape="box"] ;
109 -> 111 ;
112 [label="gini = 0.0000\nsamples = 6\nvalue = [ 0.  0.  6.  0.  0.  0.  0.  0.  0.  0.  0.  0.]", shape="box"] ;
106 -> 112 ;
113 [label="('wear', 'z', 'std') <= 3.3466\ngini = 0.375\nsamples = 8", shape="box"] ;
105 -> 113 ;
114 [label="gini = 0.0000\nsamples = 6\nvalue = [ 6.  0.  0.  0.  0.  0.  0.  0.  0.  0.  0.  0.]", shape="box"] ;
113 -> 114 ;
115 [label="gini = 0.0000\nsamples = 2\nvalue = [ 0.  0.  0.  0.  0.  0.  2.  0.  0.  0.  0.  0.]", shape="box"] ;
113 -> 115 ;
116 [label="('wear', 'peak_frequency') <= 1.1523\ngini = 0.132653061224\nsamples = 14", shape="box"] ;
104 -> 116 ;
117 [label="gini = 0.0000\nsamples = 1\nvalue = [ 1.  0.  0.  0.  0.  0.  0.  0.  0.  0.  0.  0.]", shape="box"] ;
116 -> 117 ;
118 [label="gini = 0.0000\nsamples = 13\nvalue = [  0.   0.   0.   0.   0.   0.   0.   0.  13.   0.   0.   0.]", shape="box"] ;
116 -> 118 ;
}